<?xml version="1.0"?>
<opencv_storage>
<cascade>
  <stageType>BOOST</stageType>
  <featureType>LBP</featureType>
  <height>30</height>
  <width>60</width>
  <stageParams>
    <boostType>GAB</boostType>
    <minHitRate>9.9500000476837158e-01</minHitRate>
    <maxFalseAlarm>5.0000000000000000e-01</maxFalseAlarm>
    <weightTrimRate>9.4999998807907104e-01</weightTrimRate>
    <maxDepth>1</maxDepth>
    <maxWeakCount>100</maxWeakCount></stageParams>
  <featureParams>
    <maxCatCount>256</maxCatCount>
    <featSize>1</featSize></featureParams>
  <stageNum>20</stageNum>
  <stages>
    <!-- stage 0 -->
    <_>
      <maxWeakCount>2</maxWeakCount>
      <stageThreshold>-8.9034311473369598e-02</stageThreshold>
      <weakClassifiers>
        <_>
          <internalNodes>
            0 -1 12 -79365692 -117374975 -536833983 -50003960
            -1207955324 -2004877184 0 -1152712704</internalNodes>
          <leafValues>
            -9.3766939640045166e-01 8.3193278312683105e-01</leafValues></_>
        <_>
          <internalNodes>
            0 -1 41 -732889860 -787415039 -805306351 419496065
            -2147440504 -1451229184 1342179976 -1191182304</internalNodes>
          <leafValues>
            -9.2096710205078125e-01 8.8516414165496826e-01</leafValues></_></weakClassifiers></_>
    <!-- stage 1 -->
    <_>
      <maxWeakCount>2</maxWeakCount>
      <stageThreshold>-1.6929420828819275e-01</stageThreshold>
      <weakClassifiers>
        <_>
          <internalNodes>
            0 -1 8 -179052585 -50245607 -251596451 -15138799 -503268658
            -107806720 -939489143 184549377</internalNodes>
          <leafValues>
            -8.9066666364669800e-01 7.6991152763366699e-01</leafValues></_>
        <_>
          <internalNodes>
            0 -1 36 -7219236 1904312323 -1073741756 -6455040 -2130701111
            262209666 444633354 1045110923</internalNodes>
          <leafValues>
            -9.3920570611953735e-01 7.8326070308685303e-01</leafValues></_></weakClassifiers></_>
    <!-- stage 2 -->
    <_>
      <maxWeakCount>3</maxWeakCount>
      <stageThreshold>-1.0636693239212036e+00</stageThreshold>
      <weakClassifiers>
        <_>
          <internalNodes>
            0 -1 33 527712253 -133345 -1660837955 -37890873 -879953457
            -39261490 -1080484177 -1078444760</internalNodes>
          <leafValues>
            -8.8378375768661499e-01 6.7796611785888672e-01</leafValues></_>
        <_>
          <internalNodes>
            0 -1 35 937704831 -34045069 -1745538081 -1074152292
            -388801539 -478533 -1145468710 -1081595264</internalNodes>
          <leafValues>
            -8.4652072191238403e-01 7.5090825557708740e-01</leafValues></_>
        <_>
          <internalNodes>
            0 -1 0 -255535650 -247398317 -2147253988 1193251713
            -1015005033 1950941222 1073829937 295112750</internalNodes>
          <leafValues>
            -8.9511466026306152e-01 7.1487027406692505e-01</leafValues></_></weakClassifiers></_>
    <!-- stage 3 -->
    <_>
      <maxWeakCount>3</maxWeakCount>
      <stageThreshold>-1.0056515932083130e+00</stageThreshold>
      <weakClassifiers>
        <_>
          <internalNodes>
            0 -1 29 896807421 2141008285 1563448831 -541107203 -35026177
            -360177167 -105661507 -5760344</internalNodes>
          <leafValues>
            -8.8617885112762451e-01 6.7226892709732056e-01</leafValues></_>
        <_>
          <internalNodes>
            0 -1 30 1011957181 -134440609 -44433923 -2497063 -169741825
            -85460071 -1950303496 -1400329088</internalNodes>
          <leafValues>
            -8.4753996133804321e-01 7.6830464601516724e-01</leafValues></_>
        <_>
          <internalNodes>
            0 -1 47 896800057 -44486316 -687734817 -18972325 -1086653185
            -3212635 -220535877 -1195366312</internalNodes>
          <leafValues>
            -8.3038055896759033e-01 7.5756877660751343e-01</leafValues></_></weakClassifiers></_>
    <!-- stage 4 -->
    <_>
      <maxWeakCount>2</maxWeakCount>
      <stageThreshold>-2.4824123084545135e-01</stageThreshold>
      <weakClassifiers>
        <_>
          <internalNodes>
            0 -1 20 638852605 -36687595 -648466945 -6641188 -91724805
            -73623399 -1198150737 -324507156</internalNodes>
          <leafValues>
            -8.9473682641983032e-01 5.9842520952224731e-01</leafValues></_>
        <_>
          <internalNodes>
            0 -1 32 358102013 -3141231 2064724477 -6721057 -50202373
            -302349 -1174864663 -1074001684</internalNodes>
          <leafValues>
            -8.4666645526885986e-01 7.4989467859268188e-01</leafValues></_></weakClassifiers></_>
    <!-- stage 5 -->
    <_>
      <maxWeakCount>3</maxWeakCount>
      <stageThreshold>-1.1867858171463013e+00</stageThreshold>
      <weakClassifiers>
        <_>
          <internalNodes>
            0 -1 15 1973181919 -537190375 -829172835 -4337263
            -1165875329 -91121344 -88300802 -76353230</internalNodes>
          <leafValues>
            -8.4910833835601807e-01 5.0607287883758545e-01</leafValues></_>
        <_>
          <internalNodes>
            0 -1 52 -2097281 -1528891010 -237254260 -1467033408
            -151732713 1749172225 -427562044 -55780353</internalNodes>
          <leafValues>
            -8.0569303035736084e-01 6.7087775468826294e-01</leafValues></_>
        <_>
          <internalNodes>
            0 -1 13 -564915875 -721360477 -426641161 -175514147
            -526705080 -64945518 -1954382049 -657391224</internalNodes>
          <leafValues>
            -8.8716566562652588e-01 5.8127492666244507e-01</leafValues></_></weakClassifiers></_>
    <!-- stage 6 -->
    <_>
      <maxWeakCount>3</maxWeakCount>
      <stageThreshold>-1.1719857454299927e+00</stageThreshold>
      <weakClassifiers>
        <_>
          <internalNodes>
            0 -1 7 -68691089 -387754193 -420274578 -286327409 -748847801
            -379397878 -268663707 -135007033</internalNodes>
          <leafValues>
            -8.8748240470886230e-01 5.1698112487792969e-01</leafValues></_>
        <_>
          <internalNodes>
            0 -1 14 -1493717185 1990189023 -386540073 -6292310 483145061
            -5337217 -22830335 -1049747</internalNodes>
          <leafValues>
            -8.2314610481262207e-01 7.0360469818115234e-01</leafValues></_>
        <_>
          <internalNodes>
            0 -1 37 -4825 -1510318275 -406365302 -1427471486 -48797945
            1862129657 -285252012 -152765838</internalNodes>
          <leafValues>
            -8.6582076549530029e-01 7.0803183317184448e-01</leafValues></_></weakClassifiers></_>
    <!-- stage 7 -->
    <_>
      <maxWeakCount>3</maxWeakCount>
      <stageThreshold>-1.0127980709075928e+00</stageThreshold>
      <weakClassifiers>
        <_>
          <internalNodes>
            0 -1 53 -142868617 -990317603 -2362020 -130094166 -138553529
            -1362445001 -18614976 -319034657</internalNodes>
          <leafValues>
            -8.3999997377395630e-01 6.0176992416381836e-01</leafValues></_>
        <_>
          <internalNodes>
            0 -1 4 -269488273 -340857356 -42634270 -527770777 2021605239
            1989795786 -231428848 -655761</internalNodes>
          <leafValues>
            -8.2372415065765381e-01 6.7955332994461060e-01</leafValues></_>
        <_>
          <internalNodes>
            0 -1 42 1853849487 -2106670149 251698535 -1612920518
            -117638947 -268664911 -286326980 -324211904</internalNodes>
          <leafValues>
            -7.9084384441375732e-01 7.6082897186279297e-01</leafValues></_></weakClassifiers></_>
    <!-- stage 8 -->
    <_>
      <maxWeakCount>3</maxWeakCount>
      <stageThreshold>-1.0753691196441650e+00</stageThreshold>
      <weakClassifiers>
        <_>
          <internalNodes>
            0 -1 39 108076503 -537936905 -84520961 -357067121
            -1435895817 -391268236 -87171489 -17831329</internalNodes>
          <leafValues>
            -8.5282522439956665e-01 7.2093021869659424e-01</leafValues></_>
        <_>
          <internalNodes>
            0 -1 10 -286185601 -571498283 -15168035 -6749793 -1148356491
            -71904654 -294045936 -537986445</internalNodes>
          <leafValues>
            -8.6786252260208130e-01 6.0921472311019897e-01</leafValues></_>
        <_>
          <internalNodes>
            0 -1 56 -1105 -477959991 -2075413950 1179311002 1732766244
            -505094072 -959733148 -456332580</internalNodes>
          <leafValues>
            -8.3175861835479736e-01 6.5535575151443481e-01</leafValues></_></weakClassifiers></_>
    <!-- stage 9 -->
    <_>
      <maxWeakCount>3</maxWeakCount>
      <stageThreshold>-1.0211102962493896e+00</stageThreshold>
      <weakClassifiers>
        <_>
          <internalNodes>
            0 -1 25 -212623971 402276459 -2138947201 -1255995051
            -670461751 -401372007 -1944479521 -1348486213</internalNodes>
          <leafValues>
            -8.2562750577926636e-01 5.9817349910736084e-01</leafValues></_>
        <_>
          <internalNodes>
            0 -1 50 -1071131385 214012748 -1293869023 -1584175545
            -1451062251 -1918874483 1414262016 -1515456321</internalNodes>
          <leafValues>
            -8.2542449235916138e-01 6.1940586566925049e-01</leafValues></_>
        <_>
          <internalNodes>
            0 -1 45 -3173226 -1953873908 -1828120304 -1575828672
            -360638019 782894601 1317272156 -7345941</internalNodes>
          <leafValues>
            -7.8036534786224365e-01 6.2994164228439331e-01</leafValues></_></weakClassifiers></_>
    <!-- stage 10 -->
    <_>
      <maxWeakCount>3</maxWeakCount>
      <stageThreshold>-8.7058311700820923e-01</stageThreshold>
      <weakClassifiers>
        <_>
          <internalNodes>
            0 -1 5 -177741329 -898831730 1476724774 -933052414
            -234463221 1082298375 -745553837 -136317089</internalNodes>
          <leafValues>
            -8.2939630746841431e-01 6.4485979080200195e-01</leafValues></_>
        <_>
          <internalNodes>
            0 -1 18 155457429 -606760811 -620756675 -539424487
            -654308917 -1080392287 -937415784 -47675810</internalNodes>
          <leafValues>
            -7.8948312997817993e-01 6.7292910814285278e-01</leafValues></_>
        <_>
          <internalNodes>
            0 -1 1 1217914191 1644921155 -754875508 -1060904154
            1091248135 1250543617 -523509550 -134743337</internalNodes>
          <leafValues>
            -7.0288026332855225e-01 7.4829638004302979e-01</leafValues></_></weakClassifiers></_>
    <!-- stage 11 -->
    <_>
      <maxWeakCount>3</maxWeakCount>
      <stageThreshold>-1.0640015602111816e+00</stageThreshold>
      <weakClassifiers>
        <_>
          <internalNodes>
            0 -1 3 -268440081 -292845813 1678213186 -460395698
            -241261233 1983566849 -795895769 -135790889</internalNodes>
          <leafValues>
            -8.3717775344848633e-01 5.1464432477951050e-01</leafValues></_>
        <_>
          <internalNodes>
            0 -1 26 320085501 -1084684461 -551186185 -2368019
            -1915175169 -352603149 -1115165971 -3916968</internalNodes>
          <leafValues>
            -7.5068730115890503e-01 6.7662882804870605e-01</leafValues></_>
        <_>
          <internalNodes>
            0 -1 17 301775548 -649765921 1452407133 -136986217
            -371068017 -1144420161 -1382409223 -1086547205</internalNodes>
          <leafValues>
            -8.2795870304107666e-01 6.4596301317214966e-01</leafValues></_></weakClassifiers></_>
    <!-- stage 12 -->
    <_>
      <maxWeakCount>3</maxWeakCount>
      <stageThreshold>-1.0569411516189575e+00</stageThreshold>
      <weakClassifiers>
        <_>
          <internalNodes>
            0 -1 54 -547359953 -422327537 -2002291936 -498079285
            -259791017 1611565595 -99103929 -135267333</internalNodes>
          <leafValues>
            -8.1201046705245972e-01 6.0952383279800415e-01</leafValues></_>
        <_>
          <internalNodes>
            0 -1 43 -535900658 -266649193 -536606445 2116802687
            -266370865 -374398959 -249061077 -201853853</internalNodes>
          <leafValues>
            -8.4514379501342773e-01 5.6383019685745239e-01</leafValues></_>
        <_>
          <internalNodes>
            0 -1 48 -92276833 -1563896965 -1035546604 684389759
            -1013239087 1621201835 1874840313 872413183</internalNodes>
          <leafValues>
            -8.0876094102859497e-01 6.4052212238311768e-01</leafValues></_></weakClassifiers></_>
    <!-- stage 13 -->
    <_>
      <maxWeakCount>3</maxWeakCount>
      <stageThreshold>-9.2989987134933472e-01</stageThreshold>
      <weakClassifiers>
        <_>
          <internalNodes>
            0 -1 6 -771755281 -926568205 571703306 -494472753 -217319401
            1628293191 -510659997 -1311749</internalNodes>
          <leafValues>
            -8.3129251003265381e-01 4.8547717928886414e-01</leafValues></_>
        <_>
          <internalNodes>
            0 -1 21 991179261 -610983585 1565104607 -6611771 445925305
            -1098288993 -1350014209 -1074197877</internalNodes>
          <leafValues>
            -7.0804232358932495e-01 6.9339454174041748e-01</leafValues></_>
        <_>
          <internalNodes>
            0 -1 24 869841853 -51149413 469881559 -2322085 -632685077
            -1218923311 -482246209 -1108983814</internalNodes>
          <leafValues>
            -7.0733475685119629e-01 6.9418549537658691e-01</leafValues></_></weakClassifiers></_>
    <!-- stage 14 -->
    <_>
      <maxWeakCount>3</maxWeakCount>
      <stageThreshold>-1.1085262298583984e+00</stageThreshold>
      <weakClassifiers>
        <_>
          <internalNodes>
            0 -1 38 -32519249 -1597603583 1082368268 -830060530
            -96230841 -238155232 -83263482 -134226501</internalNodes>
          <leafValues>
            -8.4033614397048950e-01 4.0458014607429504e-01</leafValues></_>
        <_>
          <internalNodes>
            0 -1 19 -1060125561 -1316322897 -779933609 -1690067061
            -1601747922 -1568614269 -939292154 -921447713</internalNodes>
          <leafValues>
            -7.5127679109573364e-01 6.1190503835678101e-01</leafValues></_>
        <_>
          <internalNodes>
            0 -1 55 -4925 -982057761 1638365190 -1060402642 -2141226160
            1363497989 -401349628 -528485489</internalNodes>
          <leafValues>
            -7.6182961463928223e-01 6.8562078475952148e-01</leafValues></_></weakClassifiers></_>
    <!-- stage 15 -->
    <_>
      <maxWeakCount>3</maxWeakCount>
      <stageThreshold>-1.2709759473800659e+00</stageThreshold>
      <weakClassifiers>
        <_>
          <internalNodes>
            0 -1 23 1506813877 1067979217 1326039545 -1076776593
            -1139021313 -1110277957 -125519117 -1077953889</internalNodes>
          <leafValues>
            -8.7164181470870972e-01 2.9411765933036804e-01</leafValues></_>
        <_>
          <internalNodes>
            0 -1 51 -2133856753 6019919 1087592295 -2118394781
            1757670738 -541911167 -844408190 -117440529</internalNodes>
          <leafValues>
            -7.9843574762344360e-01 5.1585638523101807e-01</leafValues></_>
        <_>
          <internalNodes>
            0 -1 40 6381479 -272113319 -578573546 -923889561 -1949310477
            -123340569 -68563969 -253008926</internalNodes>
          <leafValues>
            -7.6665782928466797e-01 5.7295757532119751e-01</leafValues></_></weakClassifiers></_>
    <!-- stage 16 -->
    <_>
      <maxWeakCount>3</maxWeakCount>
      <stageThreshold>-1.0461260080337524e+00</stageThreshold>
      <weakClassifiers>
        <_>
          <internalNodes>
            0 -1 31 2037454847 2006167891 -2129622243 -2522663
            -1094064641 -106724642 -3633233 -70742060</internalNodes>
          <leafValues>
            -7.8851175308227539e-01 5.2380955219268799e-01</leafValues></_>
        <_>
          <internalNodes>
            0 -1 2 -54014105 -1963726957 155289038 -1063861734
            -203712249 1735445006 -107808713 -172492169</internalNodes>
          <leafValues>
            -8.0170124769210815e-01 5.1935201883316040e-01</leafValues></_>
        <_>
          <internalNodes>
            0 -1 49 -1110212863 -1567539145 -254034986 -1663176289
            -481572333 -88897846 -1555846434 -1594361869</internalNodes>
          <leafValues>
            -7.6823431253433228e-01 5.6753849983215332e-01</leafValues></_></weakClassifiers></_>
    <!-- stage 17 -->
    <_>
      <maxWeakCount>3</maxWeakCount>
      <stageThreshold>-9.8698544502258301e-01</stageThreshold>
      <weakClassifiers>
        <_>
          <internalNodes>
            0 -1 9 -70127617 -677931297 18715519 -138041149 -1733717313
            -1159314466 -215020037 -67797919</internalNodes>
          <leafValues>
            -8.1344306468963623e-01 4.0080970525741577e-01</leafValues></_>
        <_>
          <internalNodes>
            0 -1 27 -135542865 1008059839 -717757950 -50396425
            -672434909 1288877145 2038689235 -264481</internalNodes>
          <leafValues>
            -7.1855473518371582e-01 6.3225591182708740e-01</leafValues></_>
        <_>
          <internalNodes>
            0 -1 34 -555749515 -1337933174 -183363815 977314760 25777821
            700777935 -1068539171 -1051705</internalNodes>
          <leafValues>
            -6.6924047470092773e-01 7.1743011474609375e-01</leafValues></_></weakClassifiers></_>
    <!-- stage 18 -->
    <_>
      <maxWeakCount>3</maxWeakCount>
      <stageThreshold>-1.1215151548385620e+00</stageThreshold>
      <weakClassifiers>
        <_>
          <internalNodes>
            0 -1 28 1020539293 1901187541 -930045953 -607406704
            -1910236933 -83126053 -343017219 -73082132</internalNodes>
          <leafValues>
            -8.1241381168365479e-01 3.7848606705665588e-01</leafValues></_>
        <_>
          <internalNodes>
            0 -1 46 -1973082621 -133966953 -886667562 -249754513
            -426772481 -192888479 -893155049 -1056967865</internalNodes>
          <leafValues>
            -8.1495898962020874e-01 4.6798893809318542e-01</leafValues></_>
        <_>
          <internalNodes>
            0 -1 22 -1660374049 -1290579971 -209537065 -1214650985
            -1752704041 -284995371 -68505633 -1157743642</internalNodes>
          <leafValues>
            -6.8504226207733154e-01 6.8561542034149170e-01</leafValues></_></weakClassifiers></_>
    <!-- stage 19 -->
    <_>
      <maxWeakCount>3</maxWeakCount>
      <stageThreshold>-1.0238050222396851e+00</stageThreshold>
      <weakClassifiers>
        <_>
          <internalNodes>
            0 -1 16 1465220575 -644218371 -985203811 -6440022 1137024079
            -40834363 -1115640085 -398108</internalNodes>
          <leafValues>
            -8.0053907632827759e-01 4.2735043168067932e-01</leafValues></_>
        <_>
          <internalNodes>
            0 -1 11 2101585893 427147191 987027410 -235987808 21235957
            1113591889 -392071751 -21</internalNodes>
          <leafValues>
            -7.4539685249328613e-01 5.4589706659317017e-01</leafValues></_>
        <_>
          <internalNodes>
            0 -1 44 1758426463 -1353602733 -1251107335 -1122925857
            -1448631879 -233410519 -6747853 -1700091478</internalNodes>
          <leafValues>
            -7.0575857162475586e-01 6.3491427898406982e-01</leafValues></_></weakClassifiers></_></stages>
  <features>
    <_>
      <rect>
        0 0 5 10</rect></_>
    <_>
      <rect>
        0 3 1 4</rect></_>
    <_>
      <rect>
        0 11 1 2</rect></_>
    <_>
      <rect>
        0 11 1 3</rect></_>
    <_>
      <rect>
        0 11 2 2</rect></_>
    <_>
      <rect>
        0 13 1 4</rect></_>
    <_>
      <rect>
        0 14 1 2</rect></_>
    <_>
      <rect>
        0 14 2 1</rect></_>
    <_>
      <rect>
        1 0 15 3</rect></_>
    <_>
      <rect>
        1 1 11 2</rect></_>
    <_>
      <rect>
        1 3 9 1</rect></_>
    <_>
      <rect>
        2 17 2 4</rect></_>
    <_>
      <rect>
        3 1 8 3</rect></_>
    <_>
      <rect>
        6 0 9 4</rect></_>
    <_>
      <rect>
        6 3 7 1</rect></_>
    <_>
      <rect>
        10 2 6 1</rect></_>
    <_>
      <rect>
        12 7 11 1</rect></_>
    <_>
      <rect>
        12 19 13 3</rect></_>
    <_>
      <rect>
        13 6 14 1</rect></_>
    <_>
      <rect>
        15 0 2 5</rect></_>
    <_>
      <rect>
        15 0 8 1</rect></_>
    <_>
      <rect>
        15 27 9 1</rect></_>
    <_>
      <rect>
        19 1 9 2</rect></_>
    <_>
      <rect>
        20 3 11 2</rect></_>
    <_>
      <rect>
        21 2 7 2</rect></_>
    <_>
      <rect>
        21 2 10 2</rect></_>
    <_>
      <rect>
        21 6 8 1</rect></_>
    <_>
      <rect>
        21 13 3 2</rect></_>
    <_>
      <rect>
        21 22 8 1</rect></_>
    <_>
      <rect>
        21 27 2 1</rect></_>
    <_>
      <rect>
        22 0 11 2</rect></_>
    <_>
      <rect>
        22 24 6 1</rect></_>
    <_>
      <rect>
        22 27 5 1</rect></_>
    <_>
      <rect>
        22 27 6 1</rect></_>
    <_>
      <rect>
        23 13 1 5</rect></_>
    <_>
      <rect>
        23 25 5 1</rect></_>
    <_>
      <rect>
        24 6 4 8</rect></_>
    <_>
      <rect>
        25 12 1 1</rect></_>
    <_>
      <rect>
        25 16 1 1</rect></_>
    <_>
      <rect>
        26 5 2 2</rect></_>
    <_>
      <rect>
        26 6 2 2</rect></_>
    <_>
      <rect>
        26 20 10 3</rect></_>
    <_>
      <rect>
        28 23 2 1</rect></_>
    <_>
      <rect>
        30 0 2 7</rect></_>
    <_>
      <rect>
        30 1 8 2</rect></_>
    <_>
      <rect>
        30 11 2 6</rect></_>
    <_>
      <rect>
        32 4 1 4</rect></_>
    <_>
      <rect>
        35 0 3 1</rect></_>
    <_>
      <rect>
        48 10 4 6</rect></_>
    <_>
      <rect>
        51 1 3 2</rect></_>
    <_>
      <rect>
        54 2 2 3</rect></_>
    <_>
      <rect>
        54 2 2 4</rect></_>
    <_>
      <rect>
        54 17 2 4</rect></_>
    <_>
      <rect>
        54 21 2 2</rect></_>
    <_>
      <rect>
        57 11 1 3</rect></_>
    <_>
      <rect>
        57 13 1 3</rect></_>
    <_>
      <rect>
        57 22 1 2</rect></_></features></cascade>
</opencv_storage>
